function [y1] = NN_VBSBAT_layers28_individProp_v1(x1)
%NN_VBSBAT_LAYERS28 neural network simulation function.
%
% Auto-generated by MATLAB, 19-Jan-2019 18:49:36.
% 
% [y1] = NN_VBSBAT_layers28(x1) takes these arguments:
%   x = 45xQ matrix, input #1
% and returns:
%   y = 11xQ matrix, output #1
% where Q is the number of samples.

%#ok<*RPMT0>

% ===== NEURAL NETWORK CONSTANTS =====

% Input 1
x1_step1.xoffset = [8.18942029180112e-07;2.76844598267705e-06;6.0690476817325e-06;9.33505748213357e-08;9.86481254105436e-07;2.58597866033844e-06;8.89831989743253e-07;4.68840725206555e-06;5.21598522720341e-06;9.87444204692275e-07;9.23046208455826e-07;7.5904606005428e-05;1.737018591913e-05;0.000116765044318456;4.14603660670032e-06;0.000112954188337677;0.000116678780776147;5.2374534975641e-06;8.93816708039119e-05;0.000229686573501586;0.000116981591833543;8.40592161640563e-05;100.10108220408;100.004490754932;100.067759024971;100.003570419879;100.022267339;100.029858293096;100.007759086164;100.01017365372;100.092511879132;100.037502805401;100.036883530644;0;0;0;0;0;0;0;0;0;0;0;4.69281586173254e-05];
x1_step1.gain = [0.0216154528448521;0.0226831938960399;0.0226925685588076;0.02198905754869;0.0248656086669951;0.0231447580698726;0.0220257888739891;0.0221914238730632;0.0217400456013539;0.0238662341849144;0.0235753838949125;1.33376873525848;1.33336282274126;1.33345033683328;1.3334891746111;1.33347813584689;1.33350499000806;1.33341006293102;1.33346693713454;1.33393756727712;1.33380457784183;1.3334283961471;0.00400098012365138;0.00400124555426198;0.00400078417371704;0.00400003694115416;0.00400031498585369;0.00400109082074926;0.00400041896205306;0.00400016722968418;0.00400075722669937;0.00400031657673596;0.00400167150977643;2.1449470518615;2.14475221084369;2.13391293122961;2.11481434670974;2.14816254808852;2.16451076764999;2.14247407311672;2.12326290565896;2.11794898496245;2.14569588539852;2.13241764066039;2.02030997909629];
x1_step1.ymin = -1;

% Layer 1
b1 = [-67.747746498989499742;-32.549610784854365875;-76.114161020935924284;-96.895447904485223489;5.7335720198491610944;-61.919174358242550227;-17.641739154553004454;7.015243114842297345;-128.03954205870073224;97.848068818168584926;-114.51160820739647761;-29.661802113409272863;1.4871009342076260129;-3.4130687312768155373;95.99936060930217252;-0.81510150699330718993;25.793945750757728774;-1.2686471035667772345;-21.230364952448269378;2.3679684637294791116;-18.248611753925963797;21.290819138632699037;-248.78767215993235595;21.849162186917045148;-3.5528347306717891207;269.72837145759461919;-0.36735203508021169183;122.02731433976381936];
IW1_1 = [-8.1986221186131782446 -10.912784151051079462 -9.755971599767576663 -9.2524828058783317175 -8.4641477878288249315 -9.4719882873969201142 -6.4175854882240912502 -1.348515895135462328 -0.79919652694908327462 -0.010823559169862637802 -0.81374584969182073291 0.014014503423268178522 -0.0032052680168793150524 0.0010715001573279188916 0.00091651679699934220612 -0.0016041452753904803484 -0.00078507714647919933995 -0.036412464954355808211 -0.0059767002400899580522 0.00629456261252882808 -0.00036794142226915941066 0.003032444023174412067 0.027337974788251982045 0.013651077498908434707 0.012642269535458182383 0.013346580522477814734 0.016883154453600432432 -0.02894073435466843966 -0.17827369461426673114 -0.003400316176212846847 -0.0030897058858572403091 -0.01113558342746999788 -0.0060363517272115493548 -0.15411566375568713783 -0.11614380825878596604 -0.056766385066538957438 -0.29445192252260327104 -0.2066192624909788389 -0.11557060711953531795 0.46378905855362917432 0.064807291616663473266 -0.19901203374319109685 -0.09084869756061994539 -0.081856274467227180258 -0.15432881559610636679;-6.6267109225202966982 -5.4960108944707961598 -6.2377345325234072604 -5.3233474264348847882 -6.0568275220590219732 -6.349178078631219968 -2.7502277934011321037 -2.3204497594252782022 0.74156025786358814589 0.8010560564812190254 1.4297202414117973213 -0.20176341363769084714 0.24926283107239669001 -0.12029035965098189287 -0.16850973823924964012 0.142745858155827271 0.22301183176262617813 -0.22748458276122493493 -0.33136528099033679684 -0.097530502296111321048 -2.0229767726225391655 -0.20594304809301880455 0.041565835655489317968 -0.026157401956953693634 -0.015870088090587479435 0.11653504978621560817 0.063687895053788495803 0.0060216906260233942633 -0.022284666928680585407 -0.039019089894813542563 -0.007256728695052228062 -2.8158729296582833967 -0.033448803514745245602 0.14019437441813875633 -0.36723766220941328475 0.064410279246165699774 0.25790856268820827601 -0.42279994832136991167 -0.54033153623231666707 0.10157027349405754746 0.48255601130357589357 0.22699859032203184572 -1.1592276017547233913 0.36709982394464674149 -5.5399429383111247205;-17.266111524024051249 -9.3383330967813655832 -9.6591616833611055881 -11.678950290417166258 -6.4646687718851332249 -4.4723140321048822088 -4.9351182906000339301 -6.4510710228825818291 -0.38627854917015680414 -4.5279816029239743358 2.7245338755161752076 0.099224730205721770049 0.061119456495500767979 0.0052407571361327053364 0.079524743801130851062 -0.013670677722557370709 0.017500281502110495019 0.15028999685795718655 -0.010591472649359511687 0.071340122686984822065 -0.091381244795200947117 0.32056456538683780755 -0.014963627092364989099 -0.016800594237524110047 -0.011644680336848161478 0.013967395466719888936 0.0084017421714422182988 -0.029267672678427253397 -0.016280600673914874532 0.0059516172047380886539 -0.023209024818126634121 -0.0071879532003901371734 0.48284205774003424727 -0.18175168590664675383 -0.1323289268436438626 -0.01080874650929531007 -0.10640142356286177994 -0.016413428112995079311 -0.012350635224366480688 -0.113056617732638226 -0.045206278247876117982 -0.13836219735780658224 0.081016963435577335484 0.19188654666190085862 1.674503497273271746;-14.28447467646921254 -14.491750705818400746 -15.120122378326252388 -12.964196852810010441 -12.48844991717284536 -13.744868747453248048 -7.8410047309292041362 -2.2717578074959585699 -1.4157997648208473507 -0.54185495989405629835 -0.78692496126779865051 -0.0075299130051883524095 -0.0030584334696125790171 0.012138500619611332712 0.013834161493326738168 -0.0085655571814729093011 -0.032771125919254247283 -0.0089292136016063273357 -0.14901550996134274585 -0.005870404933488538278 0.0026699574249749971795 0.0023096400531597942318 0.0041129543729691653633 0.012615351383483762449 0.0064845522483268393243 0.018278194935836065971 0.012119654017178262823 -0.003470552043908469754 0.0015103246624857428679 -0.3919519385712679771 -0.0087481486396477851214 0.00031436986625359359445 -0.013158046434371533165 -0.087218608031002203829 -0.035529607883654050482 -0.096505710910991568396 -0.11039928659442301007 -0.10183926543852936386 -0.020253509135785215806 -0.074615152910838047906 -0.32843741373182733234 -0.057664187319525855857 -0.075821497781907762348 -0.064887154695146984085 -0.20894102045650544963;-0.077831665071504130271 -0.3712227846190067071 -0.076912376655750458454 0.19898568846367944984 -0.45948506286504170459 -0.14600738174276070569 -0.17067541418480988713 -0.14809754248853584935 0.024498554483675875904 -0.2018093640971086733 0.20619516477565374979 -0.00088331461631560809298 -0.075274511826183096441 -0.29213398217791902711 -0.17810606286737692971 0.055494991270905597025 -0.0008698076497522322717 -0.051310142497812696871 -0.082214118950743403369 -0.12594236297564020965 -0.018826328014355894758 -0.68012756308220967405 0.012211407635152278506 -0.031645711694445223527 0.061677634544147721951 -0.094033628328121093842 -0.0011201551012249789854 0.014836323096775438576 0.030847048834290666242 -0.046292332239633471325 -0.029550843740905958362 -0.080389547392372140422 0.7258293162832814005 -0.048303141561529504278 0.20278299563382135018 0.32037643057260800639 0.06284180091439953153 -0.052613653595034184929 -0.049498215096210745889 0.18350441616389279176 0.061870136119521447482 0.24971765034981760478 0.22434608304904340992 -0.56459422183077256907 -5.670527918750564389;-7.7504392209937300606 -10.524759136095054757 -9.212138119635824296 -8.9476937320490090855 -7.8212111044150018913 -8.4373279137876373568 -5.5895829827261120926 -0.88011148320282139856 -0.62070439043982383875 0.3263777488605639765 -0.70931618632716986195 0.021338056923702230366 -0.0091518217495967450065 0.0015164070660308227347 0.0038655084475417177993 -0.0061780756680354185356 -0.0070211004277864787204 -0.050650422885429459419 -0.0018526413329442116204 0.012680018641633518384 -0.0069976390984808640311 -0.001001230915194677943 0.041825686322108687754 0.027637344522877721475 0.027861825204066565514 0.028643225326755134691 0.03027961556953099459 -0.030561559209513151913 -0.33558587921332916348 0.0096629625490598624465 -0.014478380276928432338 -0.010274518038357459415 -0.0072097364035477867761 -0.2812330877288380937 -0.17452323549865006447 -0.13383086811001709826 -0.43652503805976844431 -0.28653741911433755485 -0.12200696142510208952 0.58425908106783819296 0.15336213623051675459 -0.29973723112452183015 -0.059362002660594104242 -0.068967014979301605182 -0.27375039603759759865;-2.6911604521482823671 -2.1597889133237071491 -2.4011511629456143702 -2.694202970053450219 -2.0156061152801871827 -2.1735903054761918085 -0.91137460048774521226 -0.70796340938036617096 -0.30410131757662611784 -0.19407093475758291357 -0.27714798052892042346 0.013608437630015891157 -0.023295749587986597923 -0.016602567038400850574 0.020842602333968850842 -0.0051443927939020459017 0.0032931318766420310251 -0.043734296054628453432 -0.00089594560453803366151 -0.17542238515945393629 -0.0086708251795685788166 -0.015494565612698159643 0.010029209076146336499 0.019452501415606122948 0.01991674949165478381 0.020548360508966755783 0.012636592809038643681 0.0099534162025181772276 0.0017092547127692517186 4.2376892991563373933e-05 -0.17229624421711794979 0.00074651664459699635084 0.0003986199025655452104 -0.040172827769980712365 0.033180503268908895231 -0.048657794796093070677 -0.090946142580431280078 -0.065407984182806327977 -0.11889468665736122044 0.10737068649240308349 -0.060936566774160615123 -1.5934545200625400696 0.018046025258548058223 0.080058700431369603234 -0.52035171115076761517;1.1431697382625771731 0.76500379732585888082 0.81885831449901513857 0.97986446345836430982 0.92983812236895413417 1.0624603005094768182 0.35046888495293304633 -0.0023218838489503998423 -0.1070339758672066155 -0.059497703434018868462 -0.0058009976097370494902 0.015491877095338724146 0.017954380191159621805 0.0033459091877677568476 -0.010549243848452374145 0.030268957469598675031 0.036160321545492014883 0.0211331298006302154 0.19729637601663121971 0.0056056042296817269049 -0.0028507519607203993944 0.010223344934299310321 -0.0110355641291322807 -0.034361469828178191344 -0.020369731536359798885 -0.044429963564439324541 -0.034634762631005434896 -0.0048132007670563074775 0.0013609696200341703416 1.4057194110248523167 0.00086430503508532602851 -0.0068519195319618475537 0.0038628463400905348017 0.16623511447113251127 0.063184168616802621754 0.066086181194528220706 0.1449468411612266916 -0.023943412590898608544 0.070589385399372872598 -0.009552654112327791866 -0.24617526259444405534 0.027055954015530830209 -0.00027233627404352320125 -0.039425117793078702511 0.55067280723752398686;-18.983281401996762838 -16.277192309727475106 -20.729021419888820077 -19.250429659985016428 -16.039260240878117969 -13.674038585124707268 -8.0287664584145552737 -7.1017119668843085023 1.5703587988210911952 -4.6203538411371347649 -2.9439656167042889123 0.041208364599288789532 0.029766871908622385967 0.052142550152517140594 0.02832804773272332155 0.05669360795962405386 0.045954184871933867473 0.1069671958938923223 0.06033405138753080571 0.075172541819265151219 0.072711377270291810415 0.048255320404980969751 -0.01283038051600227103 0.011677475644542615121 0.0036908888992129218129 0.0053127993413925236194 0.0044662921090795138293 -0.026727404595759021722 0.0096455964773452893685 -0.0091260389627519176298 0.043813460967163979365 0.064115832562921346027 0.019565196489993101625 -0.038484651730869512409 -0.062794442435957817383 -0.16767080006964965588 -0.037972198553803029886 -0.10925193245664611974 -0.15996835489076799419 -0.10359684106180730434 -0.095155852114361852423 -0.08810412016354703113 -0.066564166166926216905 -0.11570074184060800959 1.1992565959829668554;13.788053264837337508 14.912826912567981097 15.25167665877921408 14.011298522426534063 13.379756857911278445 12.954650783176930418 7.6797741540326978082 1.948188871878421935 0.56568388668017555165 1.1204248214621932433 0.49751777724158463556 -0.0077425902515769820522 -0.0077854196783541055465 -0.0010333934322262234174 -0.00056928871703308941282 -0.0075418188240258272198 -0.0082333509392022250634 -0.0032778092779025794386 0.012654145373708874933 -0.0018989889289335777373 -0.0090583881610686069197 -0.0088051381927370421521 -0.008225937001153132283 -0.0013286780620752423193 -0.0017446140065105802865 -0.00076061977282418000677 0.001548278575803517217 -0.0080844689672254308604 0.010294801144551538399 0.016082101794459017358 -0.0097425135526855097257 0.0045133586335105281909 0.0008110881939939586574 0.056489648165834661919 0.079633040628552684281 0.031681595554575343876 0.083302240984837364057 0.12256629296364400517 0.073106926635534516534 0.092639981023199785559 -0.11001590045472699197 0.059077794073159911603 0.052127895257376419269 0.07349212007162428395 -0.073871299953917266001;-16.851705694521026402 -14.438877670176353263 -18.193200440156459763 -16.752963628063149315 -14.323787995632510928 -13.011759364326424659 -7.4082634267548748142 -6.3607768064912910688 1.4411177523140572543 -3.7530454921357789821 -2.3612691451318545965 0.033770607776853110715 0.028827376979001922974 0.048435868164841779093 0.0238309101951197852 0.057526920259595916429 0.04244351640666244041 0.092021762041542332078 0.056498497979875328401 0.062004248057823660445 0.08377190179977969664 0.041345322135215696602 -0.0093378407620826452823 0.01156233425907117647 0.0029992592829575686134 0.0050752764676411828149 0.0021089632553526822985 -0.023462595675874501483 0.0084130354144873586292 -0.0029202251719837360976 0.03337396251420454707 0.084537704990871931354 0.019407950315804847752 -0.030323966209349823009 -0.059627992534478459208 -0.14754194725744929073 -0.0244765574499193235 -0.11327655693018524874 -0.14025477308907613461 -0.08622194245728120876 -0.079714476177158447023 -0.077016553938397999679 -0.049997536138261786109 -0.10141831623337221879 1.1030848939824633437;-4.5235703968807543518 -4.2698853460596941645 -4.2334192381652107073 -4.7319988342411507531 -3.6300878896336921109 -3.766375887313514248 -2.2542740541984942482 -1.817748886838939093 -0.60466871675339661785 -0.26596462055211567144 -0.28679157313607755997 0.027715479091997344968 -0.01548669671253971418 -0.018526244415546306438 0.042080770383648199995 0.017973536304160608185 -0.0092957703807629802478 -0.053863003349009230813 0.0101216829821987684 -0.2684145422321149721 -0.014369705993404315383 0.0077233999507990373085 0.0023511787471652096856 0.022438326510192528607 0.03627558370735033122 0.030819317132959656025 0.014034159522852043822 0.0075591197076341713063 -0.0097765962566975350007 -0.020171160885413062791 -0.46814767492154918394 -0.014241606637395765045 -0.021727822403649156568 -0.054609399437302155733 0.016307264468139313907 0.058580944444810108263 -0.1164293362933195991 -0.091207034608985743107 -0.059322369157784368698 0.0970665427393818947 -0.089954650533378435751 -0.37020043395756718763 -0.043067835737543407049 -0.066331660870076941672 -0.46435369056567282753;-0.21645775998463206991 -0.31759882244929904527 -0.21240655893244547725 0.061285788949206408682 0.047305592726502032619 -0.16044574998890151485 -0.082499177378657195803 0.1385211975581616406 -0.2880361940504849172 0.11781887102140709001 -0.1674847827014460111 -0.036907045826532466903 -0.095532924351927062112 -0.050623579427693021771 0.016303256968740482274 0.03234009312973049749 -0.0026653349098875456225 0.042997855504824683548 0.02180071025777552407 -0.017587967497640934894 -0.2885375598579502654 0.061351236443640808083 0.041796420105131314171 0.012529719656672537453 -0.027418612024063374749 0.034193513774895566149 0.0068575052181436236751 0.061830836367525551789 0.0052036077868333387858 0.017007777313401806207 -0.0025520103956950760532 0.80340972165804147576 -0.020572161417193167432 0.1446917187628485868 0.11843507227661854986 0.056277017560456478462 -0.031605596033054392247 -0.047985825327248605998 -0.071142599223266905772 -0.080084276318723432442 -0.003037346653701363669 0.087241596394903253575 -0.32969315138776184027 -0.1231436155308156255 -1.4245632733795792202;-0.34220196998036273017 -0.30844119582420481684 -0.27809280095435529034 -0.2215336190406556327 -0.24113233089310492918 -0.15900756256737527683 -0.030821494054469995849 -0.0090588474123336846372 -0.031056023070320949026 -0.028154874281319571677 0.019674877149510664603 -0.02535165666647116664 -0.0080285334606649220307 -0.034740776791561525649 -0.02922340532787721934 0.0093210788717680136822 -0.016751773784037610193 -0.0071009614431607982407 -0.012170901523797916094 -0.028397332963571119552 0.0023820462982101181341 -0.028678112068401987594 0.05055132918636321554 0.032577593753929448561 0.045472570161331694882 0.030848380151980912128 0.026307053958009554012 0.034367076103618096616 -0.014552017615954331367 -0.017325922039054371393 -0.45845654224179760439 0.0048741836198880408859 0.019410344320090762438 -0.15684503273440916771 -0.17443298214479271979 -0.020416060013586749544 -0.082420731191129539828 -0.30142995986959464361 -0.14786283142460329709 -0.083281629675029417159 -0.075708247381249815788 -1.3153972760131742437 0.016765930232073390088 0.08032368478186661942 -0.47447561795306270049;14.116501170268438869 14.224761776850114003 14.9243619783503636 12.638578838782835945 12.314547223478486515 13.716724598429658855 7.7950411421181389215 2.3314835084623335426 1.5045148194373496597 0.46191422587199948424 0.85462792776851892462 0.010135504962960950603 0.0053222273855453843677 -0.012218769017360053483 -0.014576188909500549865 0.011373321898078667461 0.036622386031526593664 0.010493530267415602727 0.15908947063721620707 0.006386602832910977072 -0.0022097183868224207215 -0.0001177670475650059289 -0.0050195937836879818417 -0.015427952732221012974 -0.0090394539553336136772 -0.021870253104385967841 -0.016650365151783176609 0.0042568386936137096385 -0.0016454820242383094708 0.44079173090133444424 0.010318642414336012814 -0.0010669386324858132035 0.014267903295212575054 0.091340108344311984889 0.027777501332136980694 0.1027441857082947857 0.10756900751880235645 0.099440594644768898203 0.02508438796759467071 0.089046578016836380742 0.42813222704482112313 0.054187313008144881443 0.080764169021867920906 0.057597018155643699144 0.25531839804525180426;0.080552519550492432399 0.090784240451605643929 0.11352787491928800767 0.052181573877022643937 0.15531116730351149369 0.24823368970293524516 0.078091431270637792772 0.1598685083780829741 -0.04218284525272871649 -0.026109085860854034516 -0.0085097100774946220214 0.0091859390186845076703 0.0046835368582273540633 0.0080814899117789412708 -1.3426061062725110681e-05 -0.0032877846848487620943 0.0091842248813983548561 0.013992804192701914501 0.0020424580806677650364 0.018091191853661248851 0.04927122398200362019 0.0061210790672708058693 0.012644841565137619407 0.0086788662203069154299 0.0070105435231356547435 0.0081979464332634210261 0.013552448653994209407 0.0071863264953810224861 -0.0022614149505337738724 -0.017525966108198287596 0.034594144283520852912 -0.037416641771124740934 -0.00068164732488623300255 -0.124506725575503574 -0.13441569273202608192 -0.2027846197205692147 -0.12375385426263002531 -0.089805276345259615889 -0.16747468407075849495 -0.11321757530429099603 -0.11321503755233087996 -0.086065973612218418798 -0.64276149402425541979 -0.030903944026499895192 0.16672970888716490134;3.9498744625904107508 3.6380064593857017741 3.6847393551699352265 4.0850343918025773249 3.1272332452045521478 3.253494120997821426 1.8727087632529018091 1.6332785803808800296 0.50720726995595344366 0.23820141824267929143 0.28992440707493333241 -0.023565640753222864834 0.018625394343275775838 0.018639048508175420221 -0.038306452857156413072 -0.017113753069772346532 0.010426863990032621612 0.047477430993575570062 -0.0085737586667399175167 0.2421715658841982477 0.0075307434337521916151 -0.0047890787150336811342 -0.0063221078492932993032 -0.021597357751012451199 -0.034120178673416191872 -0.029870951670201588424 -0.017976657063890778138 -0.0077457620919144940311 0.011073581252080449272 0.020566145203839335254 0.42628932773453082072 0.010622593709478066193 0.017274133092910877452 0.053526172714220852933 -0.017436096256458994552 -0.047032006767651464429 0.11073597634194617956 0.10516251247708795213 0.060052524449772437531 -0.092765302582483596949 0.081412850778391304685 0.36622559179128394424 0.04336254422470543074 0.049081710881393278423 0.49495574982421358667;-0.64923196467936916676 -0.49931063232936434559 -0.41879764730650748117 -0.34965834117263305814 -0.47130648385472906359 -0.55865954885557644882 -0.18130058426272319116 -0.1588988690573421847 -0.1036308907433706461 -0.075813363268354638791 -0.034630201296910356756 -0.056111216993168878953 -0.13620420746741329632 -0.10516488086571673666 -0.06307437310591314239 -0.091172913434923272269 -0.14206807791773304328 -0.055213325003435995142 -0.06012777358291238744 -0.064784745699196427671 -0.66912164988607281124 -0.01336700906616831129 0.037608269052551317191 0.032092340421178783272 0.027259466488299303327 -0.01398720987892337897 -0.016475894367497818244 0.034701738149403721367 -0.0088131761156536245205 0.017068748150571286248 0.0098396811264495447069 -0.93840122529753411396 0.00019899784661637446442 0.16920946639801645595 0.26529489709563003341 0.18859869874219320485 0.061219134170673809858 0.13374646616140944966 0.26775305971921725678 0.10304351935585386035 0.10050549147354452539 0.21764544677975930509 -1.6092953066636979109 0.023180668163174166646 -2.3351215224626407085;-3.1848779604603354443 -2.6137290680950822086 -2.401465641842577714 -3.2297690614624787742 -2.1299560620754824924 -2.3300666606533839698 -0.83177387331558827466 -0.8173795181773522156 0.1041348269599894627 -0.3020413497163667027 0.10022731737709406064 -0.023969098636513249539 0.027515723096473820863 -0.038326071346322237998 -0.021250551190375895072 0.018114841373060262819 -0.0053017747915172176373 -0.017425036969927840819 -0.062158869793637688828 -0.0088060442730808416445 0.020516004000557988562 -0.014034589617794085079 0.043446044948360254545 0.015838824410461350284 0.028602776450127421343 0.020033811735655077113 0.016529062545639450904 0.037311694973773866513 -0.015992973504018740544 -0.068799426406228297859 0.0070765897709847884814 -0.0012131903789929891768 0.027324821773649015516 0.0023418952044479929113 -0.31292777355872508638 0.0028637821012085806251 -0.02224872646044086591 -0.29157003949757609451 -0.14352095343860871157 -0.047035423219177294185 -3.2979496430003685248 0.1957344485469523776 0.08474644896171476538 0.03333688058451690639 -0.39969640792370692006;-0.16663088905523107397 -0.38331153688808694557 -0.28063227822725345106 0.036281492119069967683 0.02760053793421941154 -0.20470021339773972202 -0.16680950308233166712 0.10416085246857956226 -0.30220560635095111701 0.12628285309872605557 -0.20449122282528833794 -0.058253120732212781974 -0.14636285458591904995 0.0036481839872470039204 0.097203797077570847085 0.058375399873243402626 0.081757302343861554261 0.055291940595010295734 0.12160186743634049389 0.010729607300823718746 -0.31314458549071511051 0.11208290995295791537 0.037594456329481822088 0.011762382055963620936 -0.10047990219505073539 0.06021996079768190957 0.030323630753194025234 0.084723099056582859556 -0.022330314472578549623 -0.00090924051612436586345 -0.019166476246866025884 0.46659093002794294058 -0.040737954764671610586 0.10899274086580619525 0.057573483536974182084 -0.069764861328243291116 -0.1696076915183217515 -0.1307940854783459228 -0.21603208717771790748 -0.13674399098544021136 -0.10686093447063294004 0.044122064063466907846 0.15967948987215979662 -0.22362584733470625142 -1.048179858328665448;-2.7036452512843189844 -2.2128831618514022139 -2.4384711715846876245 -2.7611636807010038197 -2.0602986874892281755 -2.2411679637466259685 -0.99732402101828176999 -0.71649493801755326228 -0.32780867377071976065 -0.18841289905928138015 -0.26680401073491022412 0.012468276975979677643 -0.026724140170306713571 -0.018687117300699884748 0.015984104957504102762 -0.0082518600019305717724 0.00076949814237817714367 -0.045266914457631562962 -0.0030350772624582935538 -0.19903264869847731022 -0.011588521195107701761 -0.019003076736203067948 0.0086078166420289932426 0.020728389631219597267 0.020464099446006443067 0.021262143091425874525 0.010097260154570054935 0.011009592846048209258 0.0031269326129487701009 -0.00033420930597612429113 -0.23736190018352934517 0.0024822543056365743534 0.0011576632087294334416 -0.033196768988234863496 0.046088523048040341834 -0.052023145309580791362 -0.0804669882680219134 -0.052571802525632350955 -0.12084269346204717932 0.11255622985823467153 -0.060113454931764800926 -1.8896869661258923756 0.03052868746374061415 0.09860093544567230528 -0.5188411695988063288;3.3172800028469309197 2.8835129628972855365 3.0440334792208538772 3.3316451257430310662 2.534110914713176399 2.6594128577421858317 1.3703147600075107349 1.3549048554186595705 0.40070763141373655358 0.22531980253166047912 0.31142361503635901387 -0.01961389329908789364 0.01894954816776201964 0.018070958541005977677 -0.037082248082690283386 -0.016913613589826126393 0.0065177451059429012889 0.042419015980837984636 -0.0071892591788371065092 0.19651431318518908231 -0.00013683886565578557218 -0.0013406806573644076096 -0.012130587781020222421 -0.020344153584747663721 -0.031314553053665046545 -0.02831493784707216424 -0.022057257628964536955 -0.0079902697329275757659 0.011286118111347095971 0.018820180045426015969 0.31840376140615916922 0.0073416778491931719564 0.011329664227239674701 0.056216296650333001661 -0.01122559168309656373 -0.027630363174565828605 0.11200814867663551333 0.12842298059502116336 0.075729437727087609011 -0.0957482026453255336 0.074032628043865331136 0.40253016269747254885 0.04487162504567551724 0.026708913764369297816 0.53780379835748914896;-36.900730889724307815 -37.482240681919023473 -39.323816370734874681 -41.872494635218444614 -35.016850377232771052 -30.598943921552478997 -13.000453277815621433 -4.8863098131175597416 -1.8387398090991726729 -5.4853228517111283224 -0.94329891688561928742 0.0029898018402172914058 0.0068566267060268422384 0.0092122122860189992882 -0.00019851260452607310701 0.0021742401916825006281 0.013929851105531245239 0.011982677123300913488 -0.00095902808898664043766 0.0048804676892391200826 0.0057920678742552815857 0.0054292945659314070794 0.004595665813697977567 -0.00021459865510849014084 0.0010686602582061172171 -0.0016447297840471671905 0.0051820070491820661648 -0.023719705452535048279 -0.0051627360623903552697 0.0029342830615752529128 0.019679434344461274597 -0.0067774640259726489158 -0.0039858295877272832686 0.031124452718360680337 -0.038949458033809704338 -0.026853756248804948326 -0.012497847345514364811 -0.07134587552851535952 -0.12154410428063357197 -0.14160872906424912254 -0.011703171900998775648 -0.032598907063676366147 -0.02872383270847288228 -0.0216155753039834371 0.092956599831953548585;3.2714109289092361266 2.6520884070820121003 2.4117908248646533487 3.3159338510616747087 2.1446259691485232146 2.421091363557619669 0.87294355900254083647 0.88024511112352954445 -0.12637149705366690355 0.33335471045705078463 -0.11812727732381402002 0.025862752928760723847 -0.031457255341369540214 0.040304718331703848211 0.022369327059840130728 -0.019781980355294860596 0.006060368866484837011 0.018837433494894226943 0.074891193281483817157 0.0082692714437027133728 -0.022995951804081815606 0.015285477827221796709 -0.044003491735398074514 -0.013876856035478122089 -0.027215414114257270584 -0.018660256953813365161 -0.01421976172266781191 -0.038399942870268960471 0.017948086489868331911 0.082665682322200881305 -0.008055050775683209735 0.0012921535223818850224 -0.029723475403992227761 -0.011900408842930469688 0.32795697626700409666 -0.012015575729670590135 0.010814720466014898434 0.29716893214813155932 0.14110343526384630519 0.035826662248972511449 3.5546392040369441112 -0.20493207621719231049 -0.089205139689319229435 -0.036394340420001981828 0.41764962167047015029;-0.045190993868158571556 -0.013892770837654076777 0.0075670200649827126099 -0.12129959509194555844 -0.12675983054820030849 -0.1570980867772781564 -0.15713619796101541137 -0.097019491965971940695 0.076047788795752968571 -0.087173969921946620198 -0.11090395974954697644 0.030812697611366641343 0.036715843180863488859 0.024544990597273087796 0.033749536991459862245 0.057630453837072083412 0.0071325805547376060212 0.021631554750761766009 0.027190409090151922838 -0.046951509145475668616 0.054937811679484166438 0.049320787138491896384 -0.018636106795110102263 -0.006002751894940253595 -0.01285713921166353399 0.017003945592886097332 -0.0093819043333189817285 -0.023634845651701749669 -0.025167446723913255296 -0.014204836809150486396 -1.5392650913861620765 -0.012351809781527603102 -0.022174393848734420126 -0.12839200965449010239 -0.13304192807883241656 -0.19984748442037786331 -0.1722565718511054611 -0.16363257450311374797 -0.11152617279615448243 -0.028072488772323610923 -0.10535264903622043597 0.43913604074149714673 -0.17041635233724539145 -0.17496624526020451706 0.79451099330432572998;39.898502281202596009 40.397205727877619097 42.516726484459773872 45.479505866758948684 38.006153156570746887 33.165278926313540353 14.37688070501141091 5.4390205635183512811 2.0665276406413868315 6.2017385404949001426 1.2656550289596490977 -0.005077024775457661919 -0.0089985205579243658647 -0.011899993709294450633 -0.0015185665851715720621 -0.0030234752406860594849 -0.019026526226439299805 -0.014105325724941827209 0.00062659396900140661678 -0.0059923284421303513181 -0.0067566370982322472225 -0.0071255364744418148507 -0.0043086353657343116549 0.0010435780817842563173 4.9092035332967871603e-06 0.0024546289288631590632 -0.0065097108554364692054 0.019372169550357632578 0.0082301640078977292281 -0.0028559704907836201172 -0.023986665325275866034 0.0081629633401793782327 0.0050541532069288633983 -0.036537875758786718394 0.04381761301558789734 0.030978502993147302019 0.016562553842421640082 0.079505656013393558035 0.13564626360732354171 0.154763242987015881 0.02099485479004748259 0.034985844760315396029 0.033947979073451810261 0.027548045893652485516 -0.13016798680590493942;0.337904330554721688 0.39721453664135186745 0.35553121647204943834 0.27310031048894384265 0.33716260341307763282 0.32923586466484522361 0.33716470839778911461 0.25567841484902159577 0.077359322151435094828 0.06215951777398547734 -0.00119682090512186496 0.068139477178281615544 0.1364206732642608555 0.063718609851749388739 0.071518628237520226465 0.0048624069921171467895 -0.0076306514206878053516 0.14293786988899004342 0.030665593394007074901 0.076581684040270228686 0.0098764216763779864167 0.81442902430720198748 -0.017147801316607383382 -0.0026302809972366522281 -0.033886138660742769202 -0.0022713738158380144747 -0.012537325034712835242 -0.039263771862075413921 -0.019276708841645690679 0.018014116774501740675 0.037409015440561313448 0.020796144645058176059 1.3780489261026585002 -0.058871591327104233482 -0.18453759045843032283 -0.05860109638568017365 0.009941616620766492371 0.043606937411596435883 0.07139755050072672804 -0.15972539054431386663 -0.025736769314351787274 -0.1492537668124612471 -0.12328746068845501671 1.3486779700863607001 2.5929028543651759797;14.809310802089255432 14.645088484590164768 15.31134452921616429 15.29212581286382644 10.970048025224130583 13.474825083092348166 10.255595031195692712 13.842812217946377729 -1.8669817530589289944 5.344240681145202565 6.4936331840490186806 -0.043637105168261629273 -0.046503556892867725647 -0.078609051663467932602 -0.036429719815135139238 -0.054173111013579293427 -0.051904398679747498768 0.04582185763118398758 -0.016648604443138689812 -0.096880636308404544099 -0.029767877124236310354 -0.099088928980317944606 0.030097346376988572819 -0.0020238299730526484316 0.023998346011922300214 -0.0013135819527254712948 -0.040088334864914892952 0.0070957943906668754716 0.51323636141414497036 0.052623507565413341069 -0.030128405485256051083 -0.012455330497382467378 -0.00053608308426646091201 0.027945590918521945323 0.095882846976916749626 0.24145798506152424401 0.14924849472228357561 0.056439475092035722159 0.10615815606222991918 -0.2105144468752842557 0.20200769139558211185 0.12652042937467367079 0.18490471134059480174 0.25711435873909260774 -1.2158984671504522446];

% Layer 2
b2 = [0.28487722075074306538;0.074426779643674084719;0.0035446368714535125312;-6.9058902988485471042;-22.547015862994840063;-56.566894422667445497;-25.63501914731739717;13.808993263213988456;2.4489357700526932504;-14.497868945804793128;-23.29266506123084568];
LW2_1 = [0.33995412899394938933 -0.49857325353331721773 0.45818232992153640204 -0.078852845181185654555 0.49048929435098781449 -0.77240480180025161694 -0.99975582067178581092 -0.11204211278446261912 -0.18384229525637221792 0.81039909333123849589 -0.066190371222373312055 -0.26335011659323775968 0.19323053396210457255 0.060388077204752442506 -0.13638888280123798169 -0.13963562377782898216 -0.047633000010405907032 0.74498882361214102676 -0.46459588692847364477 -0.76369951218994325259 0.70172370884503021404 -0.59417187355446643426 -0.36828651927741146155 -0.67281985972272551066 -0.65014483972675574108 0.021308605880411436023 0.33726453756036184339 -0.8298572649409541313;0.11564509599614652968 -0.002154940704244816263 0.060557869037088700448 -0.71908466678119953297 0.43470692786179454536 -0.37727339683214466959 -0.020550236259242838505 0.02021390149416991619 0.054810821154988219328 0.018258600970872135988 -0.64301188040415402369 -0.051505911934689674325 0.083406942327670763326 -0.02493350582462956419 -0.7666870809267547493 -0.021794882749887771467 -0.048118554252554596173 -0.0098242856695409837287 -0.25543198148744417075 -0.18781974022483613473 0.023324214377323342073 -0.046745027039774532385 -0.77922053979239458421 -0.24373338048022991087 -0.016621637482815098535 -0.41174060832053499537 0.024334267514973695334 -0.51459364225732706632;-0.97013445189039015926 -0.001707857520216910039 0.050544752736520114078 0.21556246268420109491 2.1652914368511352368e-05 0.065114204926600263712 -0.016015157785623637676 0.0011087303608082318615 0.27035142620678775938 -0.27375481064848322665 -0.013976786092410891163 0.013236766388099252892 0.018338593617023019738 7.8553355081022207445e-05 0.18659629649851655619 -0.0037363030923072367874 0.079713608333707358655 0.003704823248092064137 0.017128487584771794755 -0.59440064772254064263 0.0091500884524029820616 -0.081482037203769286382 -1.5347100747938340337 0.028999491684297277333 0.0062808750696813978043 -0.2373385833309706594 -0.00086400398871598529243 -0.024565812530964833971;-1.6907356561610566992 -0.00076922362610715286271 -0.00053328583274158260046 0.23858931878498362833 -0.0011940837500280234926 0.16597152308708393309 -0.029431555794394236025 0.0015855934257933506065 -0.11403616507430433535 -0.67902949585158278722 0.23016287249826689054 0.050213029546855088292 0.0070022301793721689403 0.0011423477053954780771 0.21844052718055970153 -0.0021799055892583159635 0.11390309552229588297 0.0008887834790749036401 -0.019229738996298817444 -0.24775455353757733223 0.024398719958783475492 -0.072668160531482881015 -11.970773270221842566 -0.010325968135352704344 0.0053228631007720527551 -4.3147810380267896946 -0.0002662884812842363641 -0.22088432425179402308;-0.0802557427036663662 -0.0018468570467266346401 -0.15515122468328157446 0.36403878469505046578 -0.0059373996770973845594 -0.037950129749156624737 -0.094244819202728244423 0.0013556822207236884394 -0.13291124929880873684 -0.46113623969711120543 0.40499876386713556942 0.09282328875294143522 -0.0053100862389980161421 0.00072188594186970453468 0.3057452499846913252 -0.0015657099244024276323 0.21763574662488471834 0.00036916182057660662129 0.14452153991459784632 0.065397680832254570515 0.080842445980871924238 -0.1485339753468458146 -36.869579144382853997 0.16334513348658527554 0.0040603269716154438695 -13.510954644449405748 0.0020145225313221927672 0.64649152045615054796;-3.2144177023866165044 6.3610149529140747006e-05 0.89482164811254560899 -0.06768156831029228937 -0.011207975856254610847 0.17724344456387322588 -0.02393096407742527007 -0.00063252256387208189315 -2.4037364032669517044 -4.5626047197989647586 5.4114325199906936348 0.018364930827311495148 0.0090397081986040451335 0.0018226968897890279998 0.0033030668586140109547 -0.00083223046640669038829 0.055692664361430700704 -0.0017440255778534757489 -0.57318673210017290209 -0.21411313427891456862 0.0088185289087190227297 -0.057240215156952468922 -98.062718105772844979 -0.52420578738833156773 -0.0065809008709484364055 -35.854115534064852966 -0.0019084568574899095882 0.88061717452631682601;48.797474657631823902 -0.0036813301221914995591 0.31920233865084046698 0.61951817774823680907 -0.0040280912703671168523 -6.765142842800232259 -0.065274733030531120748 0.002281046136030960049 8.0763752433261419839 11.314639501295415513 -15.562334176204604574 -0.22729075296335513046 0.022350289953490368872 -0.018441194859713606891 0.63907024809789947373 -0.0060971134905429946044 -0.35455952596519002551 0.003506315726538225281 -0.84454569852456173873 -0.36400501949491065323 0.064854759341876982992 0.13140917591084702587 -41.687467263199849299 -0.72459859510106439107 0.01387120563079265699 -13.756411421784038751 -0.002201159002176169676 22.443250196972510224;3.871546346425923435 -0.0064856789122246724655 -1.463099117303898522 -19.928992732813085809 0.011892047525331159857 -0.53818477545648202298 -0.26598352206704367617 0.55190949510431752678 4.8952532096270902073 -18.480142760531563795 -11.25830963543867469 0.25947380080099124999 0.010102059152779865187 -0.089554329692906983751 -18.577850669931034844 -0.05882677406338181203 0.94344233580076808376 0.0080035309517121171197 -13.1927684854768561 0.21713293321272908454 0.16749258171862785316 -0.96758376449423644239 10.306614602618632048 -12.062343728124584885 0.029769767319889610391 7.0827982821080013309 0.0036546315536416730703 1.2368729218941818537;-2.3143818831228002431 -0.019678368463303428509 0.089724662710491315254 -1.3983255150192548388 -0.037046527811607339598 0.31432627687145242579 -14.643378239191296331 0.014374425345384298988 -2.2222767822702613749 -2.618900880325714553 2.2105956423583492665 10.991305682192855642 -0.0004497828773910453673 -0.79811188415339873181 -1.2568370137094164729 -0.029862974301146295864 23.07531805136084202 0.011694556268176625052 0.25093450394169430906 0.20383990962312348305 11.934151896171790952 -14.446668614884446313 7.1302065845846227532 0.18668461525221116681 -0.80081601315210426684 3.0054286454995398081 -0.0047833786951394126341 1.1649943739335095749;-1.1719466101138882319 -0.22477734980264024722 0.38245221714937505109 -1.318840604217602186 0.053032019723355021401 0.079519496477590115302 0.33538857297373708688 -0.022835392210054469841 17.102720694632658649 -3.6388097787293998131 -59.296658350838086449 -0.85001404753063525277 2.0007643991295274155 0.0087135891952002317296 -1.120610796459541092 -0.53375697029908997226 -1.2494210015484081833 -0.68052447392389314729 0.65405225902464037002 -23.308105962860977911 -0.23346120162238753748 0.57657542296825736727 4.9836378866732191639 0.57205007383437167512 -0.00038360653613983553001 2.419099700895617211 -0.012831541768467333298 -1.1724427673214388168;1.8212824278742552053 -0.034212691029284557354 -19.520757906818023031 -0.41063616145846043581 0.85907614423333766851 -0.22814663740409105164 0.14627770812982426873 -0.0029110647049537478198 2.6750141581633761767 -0.048246081036118264318 -6.2160660870083432883 -0.61400942222766163869 -0.081319390673155009241 -0.021395171855475871719 -0.37311518051462067014 -0.084955165321064715633 -0.88596354249780884249 0.034252769934495823356 0.52307632151044169966 2.425430833111738238 -0.08921714786393836194 0.33864127057637760654 1.3828574701870512964 0.47437580479132612776 0.015227556290562377708 0.71662619422544615588 1.1308847278348523879 -0.50693425151684678998];

% Output 1
y1_step1.ymin = -1;
y1_step1.gain = [10263.5402981526;1044.92471164655;108.19863124414;9.32707601318193;3.37418398461632;2.09320289490235;2.01175015363494;2.00089503636247;2.0000508352418;2.00003394088333;2.00036178904449];
y1_step1.xoffset = [0.999805135465731;0.998085986504201;0.981515477809543;0.785570526364511;0.407264094141194;0.0445264495224026;0.00584072925113503;0.000447134328929321;2.3338383483632e-05;5.05964389245063e-06;4.81778997616658e-07];

% ===== SIMULATION ========

% Dimensions
Q = size(x1,2); % samples

% Input 1
xp1 = mapminmax_apply(x1,x1_step1);

% Layer 1
a1 = tansig_apply(repmat(b1,1,Q) + IW1_1*xp1);

% Layer 2
a2 = repmat(b2,1,Q) + LW2_1*a1;

% Output 1
y1 = mapminmax_reverse(a2,y1_step1);
end

% ===== MODULE FUNCTIONS ========

% Map Minimum and Maximum Input Processing Function
function y = mapminmax_apply(x,settings)
  y = bsxfun(@minus,x,settings.xoffset);
  y = bsxfun(@times,y,settings.gain);
  y = bsxfun(@plus,y,settings.ymin);
end

% Sigmoid Symmetric Transfer Function
function a = tansig_apply(n,~)
  a = 2 ./ (1 + exp(-2*n)) - 1;
end

% Map Minimum and Maximum Output Reverse-Processing Function
function x = mapminmax_reverse(y,settings)
  x = bsxfun(@minus,y,settings.ymin);
  x = bsxfun(@rdivide,x,settings.gain);
  x = bsxfun(@plus,x,settings.xoffset);
end
